Language model created by QuickLM on Sun Jun  9 14:59:47 EDT 2013
Copyright (c) 1996-2010 Carnegie Mellon University and Alexander I. Rudnicky

The model is in standard ARPA format, designed by Doug Paul while he was at MITRE.

The code that was used to produce this language model is available in Open Source.
Please visit http://www.speech.cs.cmu.edu/tools/ for more information

The (fixed) discount mass is 0.5. The backoffs are computed using the ratio method.
This model based on a corpus of 206 sentences and 208 words

\data\
ngram 1=208
ngram 2=412
ngram 3=206

\1-grams:
-0.7782 </s> -0.3010
-0.7782 <s> -0.2218
-3.0920 ALPHA -0.2218
-3.0920 ALT -0.2218
-3.0920 AMPERSAND -0.2218
-3.0920 APPOSTROPY -0.2218
-3.0920 AS -0.2218
-3.0920 ASTERISK -0.2218
-3.0920 AT -0.2218
-3.0920 BACKSLASH -0.2218
-3.0920 BACKSPACE -0.2218
-3.0920 BACKTICK -0.2218
-3.0920 BANG -0.2218
-3.0920 BRACES -0.2218
-3.0920 BRACKETS -0.2218
-3.0920 BRAVO -0.2218
-3.0920 CAP-ALPHA -0.2218
-3.0920 CAP-BRAVO -0.2218
-3.0920 CAP-CHARLIE -0.2218
-3.0920 CAP-DELTA -0.2218
-3.0920 CAP-ECHO -0.2218
-3.0920 CAP-FOXTROT -0.2218
-3.0920 CAP-GOLF -0.2218
-3.0920 CAP-HOTEL -0.2218
-3.0920 CAP-INDIA -0.2218
-3.0920 CAP-JULIETT -0.2218
-3.0920 CAP-KILO -0.2218
-3.0920 CAP-LIMA -0.2218
-3.0920 CAP-MIKE -0.2218
-3.0920 CAP-NOVEMBER -0.2218
-3.0920 CAP-OSCAR -0.2218
-3.0920 CAP-PAPA -0.2218
-3.0920 CAP-QUEBEC -0.2218
-3.0920 CAP-ROMEO -0.2218
-3.0920 CAP-SIERRA -0.2218
-3.0920 CAP-TANGO -0.2218
-3.0920 CAP-UNIFORM -0.2218
-3.0920 CAP-VICTOR -0.2218
-3.0920 CAP-WHISKEY -0.2218
-3.0920 CAP-XRAY -0.2218
-3.0920 CAP-YANKEE -0.2218
-3.0920 CAP-ZULU -0.2218
-3.0920 CAPS -0.2218
-3.0920 CAPS-LOCK -0.2218
-3.0920 CARET -0.2218
-3.0920 CHARLIE -0.2218
-3.0920 CLASS -0.2218
-3.0920 CLOSE -0.2218
-3.0920 COLON -0.2218
-3.0920 COMMA -0.2218
-3.0920 COMMENT -0.2218
-3.0920 COMPLETE -0.2218
-3.0920 CONTROL -0.2218
-3.0920 COPY -0.2218
-3.0920 CUT -0.2218
-3.0920 DASH -0.2218
-3.0920 DELETE -0.2218
-3.0920 DELETE-BLOCK -0.2218
-3.0920 DELETE-LINE -0.2218
-3.0920 DELETE-TO-END -0.2218
-3.0920 DELETE-TO-START -0.2218
-3.0920 DELETE-WORD -0.2218
-3.0920 DELTA -0.2218
-3.0920 DOLLAR -0.2218
-3.0920 DOT -0.2218
-3.0920 DOWN -0.2218
-3.0920 DUPLICATE-LINE -0.2218
-3.0920 DUPLICATE-LINES -0.2218
-3.0920 ECHO -0.2218
-3.0920 EIGHT -0.2218
-3.0920 ELSE -0.2218
-3.0920 ELSE-IF -0.2218
-3.0920 END -0.2218
-3.0920 ENTER -0.2218
-3.0920 EQUALS -0.2218
-3.0920 ESCAPE -0.2218
-3.0920 EXCLAMATION-POINT -0.2218
-3.0920 F-EIGHT -0.2218
-3.0920 F-ELEVEN -0.2218
-3.0920 F-FIVE -0.2218
-3.0920 F-FOUR -0.2218
-3.0920 F-NINE -0.2218
-3.0920 F-ONE -0.2218
-3.0920 F-SEVEN -0.2218
-3.0920 F-SIX -0.2218
-3.0920 F-TEN -0.2218
-3.0920 F-THREE -0.2218
-3.0920 F-TWELVE -0.2218
-3.0920 F-TWO -0.2218
-3.0920 FIND -0.2218
-3.0920 FIVE -0.2218
-3.0920 FOR -0.2218
-3.0920 FOR-K-IN -0.2218
-3.0920 FOR-K-V-IN -0.2218
-3.0920 FOUR -0.2218
-3.0920 FOXTROT -0.2218
-3.0920 FROM -0.2218
-3.0920 FUNCTION -0.2218
-3.0920 GO-TO-FUNC -0.2218
-3.0920 GO-TO-LINE -0.2218
-3.0920 GOLF -0.2218
-3.0920 GREATER-THAN -0.2218
-3.0920 HASH -0.2218
-3.0920 HASH-BANG -0.2218
-3.0920 HOME -0.2218
-3.0920 HOTEL -0.2218
-3.0920 IF -0.2218
-3.0920 IMPORT -0.2218
-3.0920 IN-IT -0.2218
-3.0920 INDENT -0.2218
-3.0920 INDIA -0.2218
-3.0920 JOIN-LINES -0.2218
-3.0920 JULIETT -0.2218
-3.0920 JUMP -0.2218
-3.0920 KILO -0.2218
-3.0920 LEFT -0.2218
-3.0920 LEFT-BRACE -0.2218
-3.0920 LEFT-BRACKET -0.2218
-3.0920 LEFT-PAREN -0.2218
-3.0920 LESS-THAN -0.2218
-3.0920 LIMA -0.2218
-3.0920 LIST -0.2218
-3.0920 LOOP -0.2218
-3.0920 LOOP-FOR-N -0.2218
-3.0920 LOWERCASE -0.2218
-3.0920 MAP -0.2218
-3.0920 METHOD -0.2218
-3.0920 MIKE -0.2218
-3.0920 MILTI-SELECT -0.2218
-3.0920 MINUS -0.2218
-3.0920 MOVE-LINE-DOWN -0.2218
-3.0920 MOVE-LINE-UP -0.2218
-3.0920 MULTI-COMMENT -0.2218
-3.0920 NEW -0.2218
-3.0920 NINE -0.2218
-3.0920 NOVEMBER -0.2218
-3.0920 ONE -0.2218
-3.0920 OPEN -0.2218
-3.0920 OSCAR -0.2218
-3.0920 PAGE-DOWN -0.2218
-3.0920 PAGE-UP -0.2218
-3.0920 PAPA -0.2218
-3.0920 PARENS -0.2218
-3.0920 PASTE -0.2218
-3.0920 PERCENT -0.2218
-3.0920 PERIOD -0.2218
-3.0920 PIPE -0.2218
-3.0920 PLUS -0.2218
-3.0920 POUND -0.2218
-3.0920 QUEBEC -0.2218
-3.0920 QUESTION-MARK -0.2218
-3.0920 QUICK-FIND -0.2218
-3.0920 QUIT -0.2218
-3.0920 QUOTES -0.2218
-3.0920 RANGE -0.2218
-3.0920 READ-FILE -0.2218
-3.0920 READ-JASON -0.2218
-3.0920 READ-PICKLE -0.2218
-3.0920 REDO -0.2218
-3.0920 RETURN -0.2218
-3.0920 RIGHT -0.2218
-3.0920 RIGHT-BRACKET -0.2218
-3.0920 RIGHT-PAREN -0.2218
-3.0920 ROMEO -0.2218
-3.0920 SAVE -0.2218
-3.0920 SELECT-ALL -0.2218
-3.0920 SELECT-BLOCK -0.2218
-3.0920 SELECT-DOWN -0.2218
-3.0920 SELECT-LINE -0.2218
-3.0920 SELECT-MILTI -0.2218
-3.0920 SELECT-UP -0.2218
-3.0920 SELECT-WORD -0.2218
-3.0920 SEMI-COLON -0.2218
-3.0920 SEVEN -0.2218
-3.0920 SHIFT -0.2218
-3.0920 SIERRA -0.2218
-3.0920 SINGLE-QUOTES -0.2218
-3.0920 SIX -0.2218
-3.0920 SLAP -0.2218
-3.0920 SLASH -0.2218
-3.0920 SPACE -0.2218
-3.0920 STAR -0.2218
-3.0920 SWITCH -0.2218
-3.0920 TAB -0.2218
-3.0920 TAG -0.2218
-3.0920 TANGO -0.2218
-3.0920 THREAD -0.2218
-3.0920 THREE -0.2218
-3.0920 TICK -0.2218
-3.0920 TILDE -0.2218
-3.0920 TOOLS -0.2218
-3.0920 TWO -0.2218
-3.0920 UN-INDENT -0.2218
-3.0920 UNDERSCORE -0.2218
-3.0920 UNDO -0.2218
-3.0920 UNIFORM -0.2218
-3.0920 UP -0.2218
-3.0920 UPPERCASE -0.2218
-3.0920 VICTOR -0.2218
-3.0920 WHISKEY -0.2218
-3.0920 WRITE-FILE -0.2218
-3.0920 WRITE-JASON -0.2218
-3.0920 WRITE-PICKLE -0.2218
-3.0920 X-RANGE -0.2218
-3.0920 XRAY -0.2218
-3.0920 YANKEE -0.2218
-3.0920 ZERO -0.2218
-3.0920 ZULU -0.2218

\2-grams:
-2.6149 <s> ALPHA 0.0000
-2.6149 <s> ALT 0.0000
-2.6149 <s> AMPERSAND 0.0000
-2.6149 <s> APPOSTROPY 0.0000
-2.6149 <s> AS 0.0000
-2.6149 <s> ASTERISK 0.0000
-2.6149 <s> AT 0.0000
-2.6149 <s> BACKSLASH 0.0000
-2.6149 <s> BACKSPACE 0.0000
-2.6149 <s> BACKTICK 0.0000
-2.6149 <s> BANG 0.0000
-2.6149 <s> BRACES 0.0000
-2.6149 <s> BRACKETS 0.0000
-2.6149 <s> BRAVO 0.0000
-2.6149 <s> CAP-ALPHA 0.0000
-2.6149 <s> CAP-BRAVO 0.0000
-2.6149 <s> CAP-CHARLIE 0.0000
-2.6149 <s> CAP-DELTA 0.0000
-2.6149 <s> CAP-ECHO 0.0000
-2.6149 <s> CAP-FOXTROT 0.0000
-2.6149 <s> CAP-GOLF 0.0000
-2.6149 <s> CAP-HOTEL 0.0000
-2.6149 <s> CAP-INDIA 0.0000
-2.6149 <s> CAP-JULIETT 0.0000
-2.6149 <s> CAP-KILO 0.0000
-2.6149 <s> CAP-LIMA 0.0000
-2.6149 <s> CAP-MIKE 0.0000
-2.6149 <s> CAP-NOVEMBER 0.0000
-2.6149 <s> CAP-OSCAR 0.0000
-2.6149 <s> CAP-PAPA 0.0000
-2.6149 <s> CAP-QUEBEC 0.0000
-2.6149 <s> CAP-ROMEO 0.0000
-2.6149 <s> CAP-SIERRA 0.0000
-2.6149 <s> CAP-TANGO 0.0000
-2.6149 <s> CAP-UNIFORM 0.0000
-2.6149 <s> CAP-VICTOR 0.0000
-2.6149 <s> CAP-WHISKEY 0.0000
-2.6149 <s> CAP-XRAY 0.0000
-2.6149 <s> CAP-YANKEE 0.0000
-2.6149 <s> CAP-ZULU 0.0000
-2.6149 <s> CAPS 0.0000
-2.6149 <s> CAPS-LOCK 0.0000
-2.6149 <s> CARET 0.0000
-2.6149 <s> CHARLIE 0.0000
-2.6149 <s> CLASS 0.0000
-2.6149 <s> CLOSE 0.0000
-2.6149 <s> COLON 0.0000
-2.6149 <s> COMMA 0.0000
-2.6149 <s> COMMENT 0.0000
-2.6149 <s> COMPLETE 0.0000
-2.6149 <s> CONTROL 0.0000
-2.6149 <s> COPY 0.0000
-2.6149 <s> CUT 0.0000
-2.6149 <s> DASH 0.0000
-2.6149 <s> DELETE 0.0000
-2.6149 <s> DELETE-BLOCK 0.0000
-2.6149 <s> DELETE-LINE 0.0000
-2.6149 <s> DELETE-TO-END 0.0000
-2.6149 <s> DELETE-TO-START 0.0000
-2.6149 <s> DELETE-WORD 0.0000
-2.6149 <s> DELTA 0.0000
-2.6149 <s> DOLLAR 0.0000
-2.6149 <s> DOT 0.0000
-2.6149 <s> DOWN 0.0000
-2.6149 <s> DUPLICATE-LINE 0.0000
-2.6149 <s> DUPLICATE-LINES 0.0000
-2.6149 <s> ECHO 0.0000
-2.6149 <s> EIGHT 0.0000
-2.6149 <s> ELSE 0.0000
-2.6149 <s> ELSE-IF 0.0000
-2.6149 <s> END 0.0000
-2.6149 <s> ENTER 0.0000
-2.6149 <s> EQUALS 0.0000
-2.6149 <s> ESCAPE 0.0000
-2.6149 <s> EXCLAMATION-POINT 0.0000
-2.6149 <s> F-EIGHT 0.0000
-2.6149 <s> F-ELEVEN 0.0000
-2.6149 <s> F-FIVE 0.0000
-2.6149 <s> F-FOUR 0.0000
-2.6149 <s> F-NINE 0.0000
-2.6149 <s> F-ONE 0.0000
-2.6149 <s> F-SEVEN 0.0000
-2.6149 <s> F-SIX 0.0000
-2.6149 <s> F-TEN 0.0000
-2.6149 <s> F-THREE 0.0000
-2.6149 <s> F-TWELVE 0.0000
-2.6149 <s> F-TWO 0.0000
-2.6149 <s> FIND 0.0000
-2.6149 <s> FIVE 0.0000
-2.6149 <s> FOR 0.0000
-2.6149 <s> FOR-K-IN 0.0000
-2.6149 <s> FOR-K-V-IN 0.0000
-2.6149 <s> FOUR 0.0000
-2.6149 <s> FOXTROT 0.0000
-2.6149 <s> FROM 0.0000
-2.6149 <s> FUNCTION 0.0000
-2.6149 <s> GO-TO-FUNC 0.0000
-2.6149 <s> GO-TO-LINE 0.0000
-2.6149 <s> GOLF 0.0000
-2.6149 <s> GREATER-THAN 0.0000
-2.6149 <s> HASH 0.0000
-2.6149 <s> HASH-BANG 0.0000
-2.6149 <s> HOME 0.0000
-2.6149 <s> HOTEL 0.0000
-2.6149 <s> IF 0.0000
-2.6149 <s> IMPORT 0.0000
-2.6149 <s> IN-IT 0.0000
-2.6149 <s> INDENT 0.0000
-2.6149 <s> INDIA 0.0000
-2.6149 <s> JOIN-LINES 0.0000
-2.6149 <s> JULIETT 0.0000
-2.6149 <s> JUMP 0.0000
-2.6149 <s> KILO 0.0000
-2.6149 <s> LEFT 0.0000
-2.6149 <s> LEFT-BRACE 0.0000
-2.6149 <s> LEFT-BRACKET 0.0000
-2.6149 <s> LEFT-PAREN 0.0000
-2.6149 <s> LESS-THAN 0.0000
-2.6149 <s> LIMA 0.0000
-2.6149 <s> LIST 0.0000
-2.6149 <s> LOOP 0.0000
-2.6149 <s> LOOP-FOR-N 0.0000
-2.6149 <s> LOWERCASE 0.0000
-2.6149 <s> MAP 0.0000
-2.6149 <s> METHOD 0.0000
-2.6149 <s> MIKE 0.0000
-2.6149 <s> MILTI-SELECT 0.0000
-2.6149 <s> MINUS 0.0000
-2.6149 <s> MOVE-LINE-DOWN 0.0000
-2.6149 <s> MOVE-LINE-UP 0.0000
-2.6149 <s> MULTI-COMMENT 0.0000
-2.6149 <s> NEW 0.0000
-2.6149 <s> NINE 0.0000
-2.6149 <s> NOVEMBER 0.0000
-2.6149 <s> ONE 0.0000
-2.6149 <s> OPEN 0.0000
-2.6149 <s> OSCAR 0.0000
-2.6149 <s> PAGE-DOWN 0.0000
-2.6149 <s> PAGE-UP 0.0000
-2.6149 <s> PAPA 0.0000
-2.6149 <s> PARENS 0.0000
-2.6149 <s> PASTE 0.0000
-2.6149 <s> PERCENT 0.0000
-2.6149 <s> PERIOD 0.0000
-2.6149 <s> PIPE 0.0000
-2.6149 <s> PLUS 0.0000
-2.6149 <s> POUND 0.0000
-2.6149 <s> QUEBEC 0.0000
-2.6149 <s> QUESTION-MARK 0.0000
-2.6149 <s> QUICK-FIND 0.0000
-2.6149 <s> QUIT 0.0000
-2.6149 <s> QUOTES 0.0000
-2.6149 <s> RANGE 0.0000
-2.6149 <s> READ-FILE 0.0000
-2.6149 <s> READ-JASON 0.0000
-2.6149 <s> READ-PICKLE 0.0000
-2.6149 <s> REDO 0.0000
-2.6149 <s> RETURN 0.0000
-2.6149 <s> RIGHT 0.0000
-2.6149 <s> RIGHT-BRACKET 0.0000
-2.6149 <s> RIGHT-PAREN 0.0000
-2.6149 <s> ROMEO 0.0000
-2.6149 <s> SAVE 0.0000
-2.6149 <s> SELECT-ALL 0.0000
-2.6149 <s> SELECT-BLOCK 0.0000
-2.6149 <s> SELECT-DOWN 0.0000
-2.6149 <s> SELECT-LINE 0.0000
-2.6149 <s> SELECT-MILTI 0.0000
-2.6149 <s> SELECT-UP 0.0000
-2.6149 <s> SELECT-WORD 0.0000
-2.6149 <s> SEMI-COLON 0.0000
-2.6149 <s> SEVEN 0.0000
-2.6149 <s> SHIFT 0.0000
-2.6149 <s> SIERRA 0.0000
-2.6149 <s> SINGLE-QUOTES 0.0000
-2.6149 <s> SIX 0.0000
-2.6149 <s> SLAP 0.0000
-2.6149 <s> SLASH 0.0000
-2.6149 <s> SPACE 0.0000
-2.6149 <s> STAR 0.0000
-2.6149 <s> SWITCH 0.0000
-2.6149 <s> TAB 0.0000
-2.6149 <s> TAG 0.0000
-2.6149 <s> TANGO 0.0000
-2.6149 <s> THREAD 0.0000
-2.6149 <s> THREE 0.0000
-2.6149 <s> TICK 0.0000
-2.6149 <s> TILDE 0.0000
-2.6149 <s> TOOLS 0.0000
-2.6149 <s> TWO 0.0000
-2.6149 <s> UN-INDENT 0.0000
-2.6149 <s> UNDERSCORE 0.0000
-2.6149 <s> UNDO 0.0000
-2.6149 <s> UNIFORM 0.0000
-2.6149 <s> UP 0.0000
-2.6149 <s> UPPERCASE 0.0000
-2.6149 <s> VICTOR 0.0000
-2.6149 <s> WHISKEY 0.0000
-2.6149 <s> WRITE-FILE 0.0000
-2.6149 <s> WRITE-JASON 0.0000
-2.6149 <s> WRITE-PICKLE 0.0000
-2.6149 <s> X-RANGE 0.0000
-2.6149 <s> XRAY 0.0000
-2.6149 <s> YANKEE 0.0000
-2.6149 <s> ZERO 0.0000
-2.6149 <s> ZULU 0.0000
-0.3010 ALPHA </s> -0.3010
-0.3010 ALT </s> -0.3010
-0.3010 AMPERSAND </s> -0.3010
-0.3010 APPOSTROPY </s> -0.3010
-0.3010 AS </s> -0.3010
-0.3010 ASTERISK </s> -0.3010
-0.3010 AT </s> -0.3010
-0.3010 BACKSLASH </s> -0.3010
-0.3010 BACKSPACE </s> -0.3010
-0.3010 BACKTICK </s> -0.3010
-0.3010 BANG </s> -0.3010
-0.3010 BRACES </s> -0.3010
-0.3010 BRACKETS </s> -0.3010
-0.3010 BRAVO </s> -0.3010
-0.3010 CAP-ALPHA </s> -0.3010
-0.3010 CAP-BRAVO </s> -0.3010
-0.3010 CAP-CHARLIE </s> -0.3010
-0.3010 CAP-DELTA </s> -0.3010
-0.3010 CAP-ECHO </s> -0.3010
-0.3010 CAP-FOXTROT </s> -0.3010
-0.3010 CAP-GOLF </s> -0.3010
-0.3010 CAP-HOTEL </s> -0.3010
-0.3010 CAP-INDIA </s> -0.3010
-0.3010 CAP-JULIETT </s> -0.3010
-0.3010 CAP-KILO </s> -0.3010
-0.3010 CAP-LIMA </s> -0.3010
-0.3010 CAP-MIKE </s> -0.3010
-0.3010 CAP-NOVEMBER </s> -0.3010
-0.3010 CAP-OSCAR </s> -0.3010
-0.3010 CAP-PAPA </s> -0.3010
-0.3010 CAP-QUEBEC </s> -0.3010
-0.3010 CAP-ROMEO </s> -0.3010
-0.3010 CAP-SIERRA </s> -0.3010
-0.3010 CAP-TANGO </s> -0.3010
-0.3010 CAP-UNIFORM </s> -0.3010
-0.3010 CAP-VICTOR </s> -0.3010
-0.3010 CAP-WHISKEY </s> -0.3010
-0.3010 CAP-XRAY </s> -0.3010
-0.3010 CAP-YANKEE </s> -0.3010
-0.3010 CAP-ZULU </s> -0.3010
-0.3010 CAPS </s> -0.3010
-0.3010 CAPS-LOCK </s> -0.3010
-0.3010 CARET </s> -0.3010
-0.3010 CHARLIE </s> -0.3010
-0.3010 CLASS </s> -0.3010
-0.3010 CLOSE </s> -0.3010
-0.3010 COLON </s> -0.3010
-0.3010 COMMA </s> -0.3010
-0.3010 COMMENT </s> -0.3010
-0.3010 COMPLETE </s> -0.3010
-0.3010 CONTROL </s> -0.3010
-0.3010 COPY </s> -0.3010
-0.3010 CUT </s> -0.3010
-0.3010 DASH </s> -0.3010
-0.3010 DELETE </s> -0.3010
-0.3010 DELETE-BLOCK </s> -0.3010
-0.3010 DELETE-LINE </s> -0.3010
-0.3010 DELETE-TO-END </s> -0.3010
-0.3010 DELETE-TO-START </s> -0.3010
-0.3010 DELETE-WORD </s> -0.3010
-0.3010 DELTA </s> -0.3010
-0.3010 DOLLAR </s> -0.3010
-0.3010 DOT </s> -0.3010
-0.3010 DOWN </s> -0.3010
-0.3010 DUPLICATE-LINE </s> -0.3010
-0.3010 DUPLICATE-LINES </s> -0.3010
-0.3010 ECHO </s> -0.3010
-0.3010 EIGHT </s> -0.3010
-0.3010 ELSE </s> -0.3010
-0.3010 ELSE-IF </s> -0.3010
-0.3010 END </s> -0.3010
-0.3010 ENTER </s> -0.3010
-0.3010 EQUALS </s> -0.3010
-0.3010 ESCAPE </s> -0.3010
-0.3010 EXCLAMATION-POINT </s> -0.3010
-0.3010 F-EIGHT </s> -0.3010
-0.3010 F-ELEVEN </s> -0.3010
-0.3010 F-FIVE </s> -0.3010
-0.3010 F-FOUR </s> -0.3010
-0.3010 F-NINE </s> -0.3010
-0.3010 F-ONE </s> -0.3010
-0.3010 F-SEVEN </s> -0.3010
-0.3010 F-SIX </s> -0.3010
-0.3010 F-TEN </s> -0.3010
-0.3010 F-THREE </s> -0.3010
-0.3010 F-TWELVE </s> -0.3010
-0.3010 F-TWO </s> -0.3010
-0.3010 FIND </s> -0.3010
-0.3010 FIVE </s> -0.3010
-0.3010 FOR </s> -0.3010
-0.3010 FOR-K-IN </s> -0.3010
-0.3010 FOR-K-V-IN </s> -0.3010
-0.3010 FOUR </s> -0.3010
-0.3010 FOXTROT </s> -0.3010
-0.3010 FROM </s> -0.3010
-0.3010 FUNCTION </s> -0.3010
-0.3010 GO-TO-FUNC </s> -0.3010
-0.3010 GO-TO-LINE </s> -0.3010
-0.3010 GOLF </s> -0.3010
-0.3010 GREATER-THAN </s> -0.3010
-0.3010 HASH </s> -0.3010
-0.3010 HASH-BANG </s> -0.3010
-0.3010 HOME </s> -0.3010
-0.3010 HOTEL </s> -0.3010
-0.3010 IF </s> -0.3010
-0.3010 IMPORT </s> -0.3010
-0.3010 IN-IT </s> -0.3010
-0.3010 INDENT </s> -0.3010
-0.3010 INDIA </s> -0.3010
-0.3010 JOIN-LINES </s> -0.3010
-0.3010 JULIETT </s> -0.3010
-0.3010 JUMP </s> -0.3010
-0.3010 KILO </s> -0.3010
-0.3010 LEFT </s> -0.3010
-0.3010 LEFT-BRACE </s> -0.3010
-0.3010 LEFT-BRACKET </s> -0.3010
-0.3010 LEFT-PAREN </s> -0.3010
-0.3010 LESS-THAN </s> -0.3010
-0.3010 LIMA </s> -0.3010
-0.3010 LIST </s> -0.3010
-0.3010 LOOP </s> -0.3010
-0.3010 LOOP-FOR-N </s> -0.3010
-0.3010 LOWERCASE </s> -0.3010
-0.3010 MAP </s> -0.3010
-0.3010 METHOD </s> -0.3010
-0.3010 MIKE </s> -0.3010
-0.3010 MILTI-SELECT </s> -0.3010
-0.3010 MINUS </s> -0.3010
-0.3010 MOVE-LINE-DOWN </s> -0.3010
-0.3010 MOVE-LINE-UP </s> -0.3010
-0.3010 MULTI-COMMENT </s> -0.3010
-0.3010 NEW </s> -0.3010
-0.3010 NINE </s> -0.3010
-0.3010 NOVEMBER </s> -0.3010
-0.3010 ONE </s> -0.3010
-0.3010 OPEN </s> -0.3010
-0.3010 OSCAR </s> -0.3010
-0.3010 PAGE-DOWN </s> -0.3010
-0.3010 PAGE-UP </s> -0.3010
-0.3010 PAPA </s> -0.3010
-0.3010 PARENS </s> -0.3010
-0.3010 PASTE </s> -0.3010
-0.3010 PERCENT </s> -0.3010
-0.3010 PERIOD </s> -0.3010
-0.3010 PIPE </s> -0.3010
-0.3010 PLUS </s> -0.3010
-0.3010 POUND </s> -0.3010
-0.3010 QUEBEC </s> -0.3010
-0.3010 QUESTION-MARK </s> -0.3010
-0.3010 QUICK-FIND </s> -0.3010
-0.3010 QUIT </s> -0.3010
-0.3010 QUOTES </s> -0.3010
-0.3010 RANGE </s> -0.3010
-0.3010 READ-FILE </s> -0.3010
-0.3010 READ-JASON </s> -0.3010
-0.3010 READ-PICKLE </s> -0.3010
-0.3010 REDO </s> -0.3010
-0.3010 RETURN </s> -0.3010
-0.3010 RIGHT </s> -0.3010
-0.3010 RIGHT-BRACKET </s> -0.3010
-0.3010 RIGHT-PAREN </s> -0.3010
-0.3010 ROMEO </s> -0.3010
-0.3010 SAVE </s> -0.3010
-0.3010 SELECT-ALL </s> -0.3010
-0.3010 SELECT-BLOCK </s> -0.3010
-0.3010 SELECT-DOWN </s> -0.3010
-0.3010 SELECT-LINE </s> -0.3010
-0.3010 SELECT-MILTI </s> -0.3010
-0.3010 SELECT-UP </s> -0.3010
-0.3010 SELECT-WORD </s> -0.3010
-0.3010 SEMI-COLON </s> -0.3010
-0.3010 SEVEN </s> -0.3010
-0.3010 SHIFT </s> -0.3010
-0.3010 SIERRA </s> -0.3010
-0.3010 SINGLE-QUOTES </s> -0.3010
-0.3010 SIX </s> -0.3010
-0.3010 SLAP </s> -0.3010
-0.3010 SLASH </s> -0.3010
-0.3010 SPACE </s> -0.3010
-0.3010 STAR </s> -0.3010
-0.3010 SWITCH </s> -0.3010
-0.3010 TAB </s> -0.3010
-0.3010 TAG </s> -0.3010
-0.3010 TANGO </s> -0.3010
-0.3010 THREAD </s> -0.3010
-0.3010 THREE </s> -0.3010
-0.3010 TICK </s> -0.3010
-0.3010 TILDE </s> -0.3010
-0.3010 TOOLS </s> -0.3010
-0.3010 TWO </s> -0.3010
-0.3010 UN-INDENT </s> -0.3010
-0.3010 UNDERSCORE </s> -0.3010
-0.3010 UNDO </s> -0.3010
-0.3010 UNIFORM </s> -0.3010
-0.3010 UP </s> -0.3010
-0.3010 UPPERCASE </s> -0.3010
-0.3010 VICTOR </s> -0.3010
-0.3010 WHISKEY </s> -0.3010
-0.3010 WRITE-FILE </s> -0.3010
-0.3010 WRITE-JASON </s> -0.3010
-0.3010 WRITE-PICKLE </s> -0.3010
-0.3010 X-RANGE </s> -0.3010
-0.3010 XRAY </s> -0.3010
-0.3010 YANKEE </s> -0.3010
-0.3010 ZERO </s> -0.3010
-0.3010 ZULU </s> -0.3010

\3-grams:
-0.3010 <s> ALPHA </s>
-0.3010 <s> ALT </s>
-0.3010 <s> AMPERSAND </s>
-0.3010 <s> APPOSTROPY </s>
-0.3010 <s> AS </s>
-0.3010 <s> ASTERISK </s>
-0.3010 <s> AT </s>
-0.3010 <s> BACKSLASH </s>
-0.3010 <s> BACKSPACE </s>
-0.3010 <s> BACKTICK </s>
-0.3010 <s> BANG </s>
-0.3010 <s> BRACES </s>
-0.3010 <s> BRACKETS </s>
-0.3010 <s> BRAVO </s>
-0.3010 <s> CAP-ALPHA </s>
-0.3010 <s> CAP-BRAVO </s>
-0.3010 <s> CAP-CHARLIE </s>
-0.3010 <s> CAP-DELTA </s>
-0.3010 <s> CAP-ECHO </s>
-0.3010 <s> CAP-FOXTROT </s>
-0.3010 <s> CAP-GOLF </s>
-0.3010 <s> CAP-HOTEL </s>
-0.3010 <s> CAP-INDIA </s>
-0.3010 <s> CAP-JULIETT </s>
-0.3010 <s> CAP-KILO </s>
-0.3010 <s> CAP-LIMA </s>
-0.3010 <s> CAP-MIKE </s>
-0.3010 <s> CAP-NOVEMBER </s>
-0.3010 <s> CAP-OSCAR </s>
-0.3010 <s> CAP-PAPA </s>
-0.3010 <s> CAP-QUEBEC </s>
-0.3010 <s> CAP-ROMEO </s>
-0.3010 <s> CAP-SIERRA </s>
-0.3010 <s> CAP-TANGO </s>
-0.3010 <s> CAP-UNIFORM </s>
-0.3010 <s> CAP-VICTOR </s>
-0.3010 <s> CAP-WHISKEY </s>
-0.3010 <s> CAP-XRAY </s>
-0.3010 <s> CAP-YANKEE </s>
-0.3010 <s> CAP-ZULU </s>
-0.3010 <s> CAPS </s>
-0.3010 <s> CAPS-LOCK </s>
-0.3010 <s> CARET </s>
-0.3010 <s> CHARLIE </s>
-0.3010 <s> CLASS </s>
-0.3010 <s> CLOSE </s>
-0.3010 <s> COLON </s>
-0.3010 <s> COMMA </s>
-0.3010 <s> COMMENT </s>
-0.3010 <s> COMPLETE </s>
-0.3010 <s> CONTROL </s>
-0.3010 <s> COPY </s>
-0.3010 <s> CUT </s>
-0.3010 <s> DASH </s>
-0.3010 <s> DELETE </s>
-0.3010 <s> DELETE-BLOCK </s>
-0.3010 <s> DELETE-LINE </s>
-0.3010 <s> DELETE-TO-END </s>
-0.3010 <s> DELETE-TO-START </s>
-0.3010 <s> DELETE-WORD </s>
-0.3010 <s> DELTA </s>
-0.3010 <s> DOLLAR </s>
-0.3010 <s> DOT </s>
-0.3010 <s> DOWN </s>
-0.3010 <s> DUPLICATE-LINE </s>
-0.3010 <s> DUPLICATE-LINES </s>
-0.3010 <s> ECHO </s>
-0.3010 <s> EIGHT </s>
-0.3010 <s> ELSE </s>
-0.3010 <s> ELSE-IF </s>
-0.3010 <s> END </s>
-0.3010 <s> ENTER </s>
-0.3010 <s> EQUALS </s>
-0.3010 <s> ESCAPE </s>
-0.3010 <s> EXCLAMATION-POINT </s>
-0.3010 <s> F-EIGHT </s>
-0.3010 <s> F-ELEVEN </s>
-0.3010 <s> F-FIVE </s>
-0.3010 <s> F-FOUR </s>
-0.3010 <s> F-NINE </s>
-0.3010 <s> F-ONE </s>
-0.3010 <s> F-SEVEN </s>
-0.3010 <s> F-SIX </s>
-0.3010 <s> F-TEN </s>
-0.3010 <s> F-THREE </s>
-0.3010 <s> F-TWELVE </s>
-0.3010 <s> F-TWO </s>
-0.3010 <s> FIND </s>
-0.3010 <s> FIVE </s>
-0.3010 <s> FOR </s>
-0.3010 <s> FOR-K-IN </s>
-0.3010 <s> FOR-K-V-IN </s>
-0.3010 <s> FOUR </s>
-0.3010 <s> FOXTROT </s>
-0.3010 <s> FROM </s>
-0.3010 <s> FUNCTION </s>
-0.3010 <s> GO-TO-FUNC </s>
-0.3010 <s> GO-TO-LINE </s>
-0.3010 <s> GOLF </s>
-0.3010 <s> GREATER-THAN </s>
-0.3010 <s> HASH </s>
-0.3010 <s> HASH-BANG </s>
-0.3010 <s> HOME </s>
-0.3010 <s> HOTEL </s>
-0.3010 <s> IF </s>
-0.3010 <s> IMPORT </s>
-0.3010 <s> IN-IT </s>
-0.3010 <s> INDENT </s>
-0.3010 <s> INDIA </s>
-0.3010 <s> JOIN-LINES </s>
-0.3010 <s> JULIETT </s>
-0.3010 <s> JUMP </s>
-0.3010 <s> KILO </s>
-0.3010 <s> LEFT </s>
-0.3010 <s> LEFT-BRACE </s>
-0.3010 <s> LEFT-BRACKET </s>
-0.3010 <s> LEFT-PAREN </s>
-0.3010 <s> LESS-THAN </s>
-0.3010 <s> LIMA </s>
-0.3010 <s> LIST </s>
-0.3010 <s> LOOP </s>
-0.3010 <s> LOOP-FOR-N </s>
-0.3010 <s> LOWERCASE </s>
-0.3010 <s> MAP </s>
-0.3010 <s> METHOD </s>
-0.3010 <s> MIKE </s>
-0.3010 <s> MILTI-SELECT </s>
-0.3010 <s> MINUS </s>
-0.3010 <s> MOVE-LINE-DOWN </s>
-0.3010 <s> MOVE-LINE-UP </s>
-0.3010 <s> MULTI-COMMENT </s>
-0.3010 <s> NEW </s>
-0.3010 <s> NINE </s>
-0.3010 <s> NOVEMBER </s>
-0.3010 <s> ONE </s>
-0.3010 <s> OPEN </s>
-0.3010 <s> OSCAR </s>
-0.3010 <s> PAGE-DOWN </s>
-0.3010 <s> PAGE-UP </s>
-0.3010 <s> PAPA </s>
-0.3010 <s> PARENS </s>
-0.3010 <s> PASTE </s>
-0.3010 <s> PERCENT </s>
-0.3010 <s> PERIOD </s>
-0.3010 <s> PIPE </s>
-0.3010 <s> PLUS </s>
-0.3010 <s> POUND </s>
-0.3010 <s> QUEBEC </s>
-0.3010 <s> QUESTION-MARK </s>
-0.3010 <s> QUICK-FIND </s>
-0.3010 <s> QUIT </s>
-0.3010 <s> QUOTES </s>
-0.3010 <s> RANGE </s>
-0.3010 <s> READ-FILE </s>
-0.3010 <s> READ-JASON </s>
-0.3010 <s> READ-PICKLE </s>
-0.3010 <s> REDO </s>
-0.3010 <s> RETURN </s>
-0.3010 <s> RIGHT </s>
-0.3010 <s> RIGHT-BRACKET </s>
-0.3010 <s> RIGHT-PAREN </s>
-0.3010 <s> ROMEO </s>
-0.3010 <s> SAVE </s>
-0.3010 <s> SELECT-ALL </s>
-0.3010 <s> SELECT-BLOCK </s>
-0.3010 <s> SELECT-DOWN </s>
-0.3010 <s> SELECT-LINE </s>
-0.3010 <s> SELECT-MILTI </s>
-0.3010 <s> SELECT-UP </s>
-0.3010 <s> SELECT-WORD </s>
-0.3010 <s> SEMI-COLON </s>
-0.3010 <s> SEVEN </s>
-0.3010 <s> SHIFT </s>
-0.3010 <s> SIERRA </s>
-0.3010 <s> SINGLE-QUOTES </s>
-0.3010 <s> SIX </s>
-0.3010 <s> SLAP </s>
-0.3010 <s> SLASH </s>
-0.3010 <s> SPACE </s>
-0.3010 <s> STAR </s>
-0.3010 <s> SWITCH </s>
-0.3010 <s> TAB </s>
-0.3010 <s> TAG </s>
-0.3010 <s> TANGO </s>
-0.3010 <s> THREAD </s>
-0.3010 <s> THREE </s>
-0.3010 <s> TICK </s>
-0.3010 <s> TILDE </s>
-0.3010 <s> TOOLS </s>
-0.3010 <s> TWO </s>
-0.3010 <s> UN-INDENT </s>
-0.3010 <s> UNDERSCORE </s>
-0.3010 <s> UNDO </s>
-0.3010 <s> UNIFORM </s>
-0.3010 <s> UP </s>
-0.3010 <s> UPPERCASE </s>
-0.3010 <s> VICTOR </s>
-0.3010 <s> WHISKEY </s>
-0.3010 <s> WRITE-FILE </s>
-0.3010 <s> WRITE-JASON </s>
-0.3010 <s> WRITE-PICKLE </s>
-0.3010 <s> X-RANGE </s>
-0.3010 <s> XRAY </s>
-0.3010 <s> YANKEE </s>
-0.3010 <s> ZERO </s>
-0.3010 <s> ZULU </s>

\end\
