Language model created by QuickLM on Sat Jun 15 18:16:43 EDT 2013
Copyright (c) 1996-2010 Carnegie Mellon University and Alexander I. Rudnicky

The model is in standard ARPA format, designed by Doug Paul while he was at MITRE.

The code that was used to produce this language model is available in Open Source.
Please visit http://www.speech.cs.cmu.edu/tools/ for more information

The (fixed) discount mass is 0.5. The backoffs are computed using the ratio method.
This model based on a corpus of 229 sentences and 231 words

\data\
ngram 1=231
ngram 2=458
ngram 3=229

\1-grams:
-0.7782 </s> -0.3010
-0.7782 <s> -0.2218
-3.1380 ALPHA -0.2218
-3.1380 ALT -0.2218
-3.1380 AMPERSAND -0.2218
-3.1380 APPOSTROPY -0.2218
-3.1380 ASTERISK -0.2218
-3.1380 AT -0.2218
-3.1380 BACK -0.2218
-3.1380 BACKSLASH -0.2218
-3.1380 BACKSPACE -0.2218
-3.1380 BACKTICK -0.2218
-3.1380 BANG -0.2218
-3.1380 BRACES -0.2218
-3.1380 BRACKETS -0.2218
-3.1380 BRAVO -0.2218
-3.1380 C-D -0.2218
-3.1380 CAP-ALPHA -0.2218
-3.1380 CAP-BRAVO -0.2218
-3.1380 CAP-CHARLIE -0.2218
-3.1380 CAP-DELTA -0.2218
-3.1380 CAP-ECHO -0.2218
-3.1380 CAP-FOXTROT -0.2218
-3.1380 CAP-GOLF -0.2218
-3.1380 CAP-HOTEL -0.2218
-3.1380 CAP-INDIA -0.2218
-3.1380 CAP-JULIE -0.2218
-3.1380 CAP-KILO -0.2218
-3.1380 CAP-LIMA -0.2218
-3.1380 CAP-MIKE -0.2218
-3.1380 CAP-NOVEMBER -0.2218
-3.1380 CAP-OSCAR -0.2218
-3.1380 CAP-PAPA -0.2218
-3.1380 CAP-QUEBEC -0.2218
-3.1380 CAP-ROMEO -0.2218
-3.1380 CAP-SIERRA -0.2218
-3.1380 CAP-TANGO -0.2218
-3.1380 CAP-UNIFORM -0.2218
-3.1380 CAP-VICTOR -0.2218
-3.1380 CAP-WHISKEY -0.2218
-3.1380 CAP-X-RAY -0.2218
-3.1380 CAP-YANKEE -0.2218
-3.1380 CAP-ZEN -0.2218
-3.1380 CAPS -0.2218
-3.1380 CAPS-LOCK -0.2218
-3.1380 CARET -0.2218
-3.1380 CHARLIE -0.2218
-3.1380 CLASS -0.2218
-3.1380 CLEAR -0.2218
-3.1380 CLOSE -0.2218
-3.1380 COLON -0.2218
-3.1380 COMMA -0.2218
-3.1380 COMMENT -0.2218
-3.1380 COMPLETE -0.2218
-3.1380 CONTROL -0.2218
-3.1380 COPY -0.2218
-3.1380 CURRENT -0.2218
-3.1380 CUT -0.2218
-3.1380 DASH -0.2218
-3.1380 DEFAULT-PASS -0.2218
-3.1380 DEFAULT-USER -0.2218
-3.1380 DELETE -0.2218
-3.1380 DELETE-BLOCK -0.2218
-3.1380 DELETE-LINE -0.2218
-3.1380 DELETE-TO-END -0.2218
-3.1380 DELETE-TO-START -0.2218
-3.1380 DELETE-WORD -0.2218
-3.1380 DELTA -0.2218
-3.1380 DOLLAR -0.2218
-3.1380 DOT -0.2218
-3.1380 DOT-BIZ -0.2218
-3.1380 DOT-COM -0.2218
-3.1380 DOT-G-O -0.2218
-3.1380 DOT-H-T-M-L -0.2218
-3.1380 DOT-JASON -0.2218
-3.1380 DOT-NET -0.2218
-3.1380 DOT-ORG -0.2218
-3.1380 DOT-P-Y -0.2218
-3.1380 DOT-S-H -0.2218
-3.1380 DOT-T-X-T -0.2218
-3.1380 DOWN -0.2218
-3.1380 DUPLICATE-LINE -0.2218
-3.1380 DUPLICATE-LINES -0.2218
-3.1380 ECHO -0.2218
-3.1380 EIGHT -0.2218
-3.1380 ELSE -0.2218
-3.1380 ELSE-IF -0.2218
-3.1380 END -0.2218
-3.1380 ENTER -0.2218
-3.1380 EQUALS -0.2218
-3.1380 ESCAPE -0.2218
-3.1380 EXCLAMATION-POINT -0.2218
-3.1380 F-EIGHT -0.2218
-3.1380 F-ELEVEN -0.2218
-3.1380 F-FIVE -0.2218
-3.1380 F-FOUR -0.2218
-3.1380 F-NINE -0.2218
-3.1380 F-ONE -0.2218
-3.1380 F-SEVEN -0.2218
-3.1380 F-SIX -0.2218
-3.1380 F-TEN -0.2218
-3.1380 F-THREE -0.2218
-3.1380 F-TWELVE -0.2218
-3.1380 F-TWO -0.2218
-3.1380 FIND -0.2218
-3.1380 FIVE -0.2218
-3.1380 FOR-K -0.2218
-3.1380 FOR-K-V -0.2218
-3.1380 FOR-LOOP -0.2218
-3.1380 FOUR -0.2218
-3.1380 FOXTROT -0.2218
-3.1380 FROM -0.2218
-3.1380 FUNCTION -0.2218
-3.1380 GO-TO-FUNC -0.2218
-3.1380 GO-TO-LINE -0.2218
-3.1380 GOLF -0.2218
-3.1380 GREATER-THAN -0.2218
-3.1380 HASH -0.2218
-3.1380 HASH-BANG -0.2218
-3.1380 HOME -0.2218
-3.1380 HOTEL -0.2218
-3.1380 IF -0.2218
-3.1380 IMPORT -0.2218
-3.1380 IN-IT -0.2218
-3.1380 INDENT -0.2218
-3.1380 INDIA -0.2218
-3.1380 JOIN-LINES -0.2218
-3.1380 JULIE -0.2218
-3.1380 JUMP -0.2218
-3.1380 KILO -0.2218
-3.1380 L-S -0.2218
-3.1380 LEFT -0.2218
-3.1380 LESS-THAN -0.2218
-3.1380 LIMA -0.2218
-3.1380 LIST -0.2218
-3.1380 LOWERCASE -0.2218
-3.1380 MAN -0.2218
-3.1380 MAP -0.2218
-3.1380 METHOD -0.2218
-3.1380 MIKE -0.2218
-3.1380 MILTI-SELECT -0.2218
-3.1380 MINUS -0.2218
-3.1380 MOVE-LINE-DOWN -0.2218
-3.1380 MOVE-LINE-UP -0.2218
-3.1380 MULTI-COMMENT -0.2218
-3.1380 NEW -0.2218
-3.1380 NEXT -0.2218
-3.1380 NINE -0.2218
-3.1380 NOVEMBER -0.2218
-3.1380 ONE -0.2218
-3.1380 OPEN -0.2218
-3.1380 OSCAR -0.2218
-3.1380 P-W-D -0.2218
-3.1380 PAGE-DOWN -0.2218
-3.1380 PAGE-UP -0.2218
-3.1380 PAPA -0.2218
-3.1380 PARENS -0.2218
-3.1380 PASTE -0.2218
-3.1380 PERCENT -0.2218
-3.1380 PERIOD -0.2218
-3.1380 PIPE -0.2218
-3.1380 PLUS -0.2218
-3.1380 POUND -0.2218
-3.1380 PRINT -0.2218
-3.1380 QUEBEC -0.2218
-3.1380 QUESTION-MARK -0.2218
-3.1380 QUICK-FIND -0.2218
-3.1380 QUIT -0.2218
-3.1380 QUOTES -0.2218
-3.1380 RANGE -0.2218
-3.1380 RE-INITIALIZE-VOICE -0.2218
-3.1380 REDO -0.2218
-3.1380 REMOVE -0.2218
-3.1380 RETURN -0.2218
-3.1380 RIGHT -0.2218
-3.1380 ROMEO -0.2218
-3.1380 ROOT-PASS -0.2218
-3.1380 ROOT-USER -0.2218
-3.1380 S-S-H -0.2218
-3.1380 SAVE -0.2218
-3.1380 SCOPE-ALPHA -0.2218
-3.1380 SCOPE-BASE -0.2218
-3.1380 SCOPE-BASH -0.2218
-3.1380 SCOPE-DIGIT -0.2218
-3.1380 SCOPE-META -0.2218
-3.1380 SCOPE-PYTHON -0.2218
-3.1380 SCOPE-SUBLIME -0.2218
-3.1380 SCOPE-SYMBOLS -0.2218
-3.1380 SCOPE-WEB -0.2218
-3.1380 SELECT-ALL -0.2218
-3.1380 SELECT-BLOCK -0.2218
-3.1380 SELECT-DOWN -0.2218
-3.1380 SELECT-LINE -0.2218
-3.1380 SELECT-MILTI -0.2218
-3.1380 SELECT-UP -0.2218
-3.1380 SELECT-WORD -0.2218
-3.1380 SEMI-COLON -0.2218
-3.1380 SEVEN -0.2218
-3.1380 SHIFT -0.2218
-3.1380 SIERRA -0.2218
-3.1380 SINGLE-QUOTES -0.2218
-3.1380 SIX -0.2218
-3.1380 SLAP -0.2218
-3.1380 SLASH -0.2218
-3.1380 SPACE -0.2218
-3.1380 STAR -0.2218
-3.1380 SUBLIME -0.2218
-3.1380 SUPER-SECRET-REMOVE -0.2218
-3.1380 SWITCH -0.2218
-3.1380 TAB -0.2218
-3.1380 TAG -0.2218
-3.1380 TANGO -0.2218
-3.1380 THREAD -0.2218
-3.1380 THREE -0.2218
-3.1380 TICK -0.2218
-3.1380 TILDE -0.2218
-3.1380 TOOLS -0.2218
-3.1380 TOUCH -0.2218
-3.1380 TWO -0.2218
-3.1380 UN-INDENT -0.2218
-3.1380 UNDERSCORE -0.2218
-3.1380 UNDO -0.2218
-3.1380 UNIFORM -0.2218
-3.1380 UP -0.2218
-3.1380 UPPERCASE -0.2218
-3.1380 VICTOR -0.2218
-3.1380 WHISKEY -0.2218
-3.1380 X-RAY -0.2218
-3.1380 YANKEE -0.2218
-3.1380 ZEN -0.2218
-3.1380 ZERO -0.2218

\2-grams:
-2.6609 <s> ALPHA 0.0000
-2.6609 <s> ALT 0.0000
-2.6609 <s> AMPERSAND 0.0000
-2.6609 <s> APPOSTROPY 0.0000
-2.6609 <s> ASTERISK 0.0000
-2.6609 <s> AT 0.0000
-2.6609 <s> BACK 0.0000
-2.6609 <s> BACKSLASH 0.0000
-2.6609 <s> BACKSPACE 0.0000
-2.6609 <s> BACKTICK 0.0000
-2.6609 <s> BANG 0.0000
-2.6609 <s> BRACES 0.0000
-2.6609 <s> BRACKETS 0.0000
-2.6609 <s> BRAVO 0.0000
-2.6609 <s> C-D 0.0000
-2.6609 <s> CAP-ALPHA 0.0000
-2.6609 <s> CAP-BRAVO 0.0000
-2.6609 <s> CAP-CHARLIE 0.0000
-2.6609 <s> CAP-DELTA 0.0000
-2.6609 <s> CAP-ECHO 0.0000
-2.6609 <s> CAP-FOXTROT 0.0000
-2.6609 <s> CAP-GOLF 0.0000
-2.6609 <s> CAP-HOTEL 0.0000
-2.6609 <s> CAP-INDIA 0.0000
-2.6609 <s> CAP-JULIE 0.0000
-2.6609 <s> CAP-KILO 0.0000
-2.6609 <s> CAP-LIMA 0.0000
-2.6609 <s> CAP-MIKE 0.0000
-2.6609 <s> CAP-NOVEMBER 0.0000
-2.6609 <s> CAP-OSCAR 0.0000
-2.6609 <s> CAP-PAPA 0.0000
-2.6609 <s> CAP-QUEBEC 0.0000
-2.6609 <s> CAP-ROMEO 0.0000
-2.6609 <s> CAP-SIERRA 0.0000
-2.6609 <s> CAP-TANGO 0.0000
-2.6609 <s> CAP-UNIFORM 0.0000
-2.6609 <s> CAP-VICTOR 0.0000
-2.6609 <s> CAP-WHISKEY 0.0000
-2.6609 <s> CAP-X-RAY 0.0000
-2.6609 <s> CAP-YANKEE 0.0000
-2.6609 <s> CAP-ZEN 0.0000
-2.6609 <s> CAPS 0.0000
-2.6609 <s> CAPS-LOCK 0.0000
-2.6609 <s> CARET 0.0000
-2.6609 <s> CHARLIE 0.0000
-2.6609 <s> CLASS 0.0000
-2.6609 <s> CLEAR 0.0000
-2.6609 <s> CLOSE 0.0000
-2.6609 <s> COLON 0.0000
-2.6609 <s> COMMA 0.0000
-2.6609 <s> COMMENT 0.0000
-2.6609 <s> COMPLETE 0.0000
-2.6609 <s> CONTROL 0.0000
-2.6609 <s> COPY 0.0000
-2.6609 <s> CURRENT 0.0000
-2.6609 <s> CUT 0.0000
-2.6609 <s> DASH 0.0000
-2.6609 <s> DEFAULT-PASS 0.0000
-2.6609 <s> DEFAULT-USER 0.0000
-2.6609 <s> DELETE 0.0000
-2.6609 <s> DELETE-BLOCK 0.0000
-2.6609 <s> DELETE-LINE 0.0000
-2.6609 <s> DELETE-TO-END 0.0000
-2.6609 <s> DELETE-TO-START 0.0000
-2.6609 <s> DELETE-WORD 0.0000
-2.6609 <s> DELTA 0.0000
-2.6609 <s> DOLLAR 0.0000
-2.6609 <s> DOT 0.0000
-2.6609 <s> DOT-BIZ 0.0000
-2.6609 <s> DOT-COM 0.0000
-2.6609 <s> DOT-G-O 0.0000
-2.6609 <s> DOT-H-T-M-L 0.0000
-2.6609 <s> DOT-JASON 0.0000
-2.6609 <s> DOT-NET 0.0000
-2.6609 <s> DOT-ORG 0.0000
-2.6609 <s> DOT-P-Y 0.0000
-2.6609 <s> DOT-S-H 0.0000
-2.6609 <s> DOT-T-X-T 0.0000
-2.6609 <s> DOWN 0.0000
-2.6609 <s> DUPLICATE-LINE 0.0000
-2.6609 <s> DUPLICATE-LINES 0.0000
-2.6609 <s> ECHO 0.0000
-2.6609 <s> EIGHT 0.0000
-2.6609 <s> ELSE 0.0000
-2.6609 <s> ELSE-IF 0.0000
-2.6609 <s> END 0.0000
-2.6609 <s> ENTER 0.0000
-2.6609 <s> EQUALS 0.0000
-2.6609 <s> ESCAPE 0.0000
-2.6609 <s> EXCLAMATION-POINT 0.0000
-2.6609 <s> F-EIGHT 0.0000
-2.6609 <s> F-ELEVEN 0.0000
-2.6609 <s> F-FIVE 0.0000
-2.6609 <s> F-FOUR 0.0000
-2.6609 <s> F-NINE 0.0000
-2.6609 <s> F-ONE 0.0000
-2.6609 <s> F-SEVEN 0.0000
-2.6609 <s> F-SIX 0.0000
-2.6609 <s> F-TEN 0.0000
-2.6609 <s> F-THREE 0.0000
-2.6609 <s> F-TWELVE 0.0000
-2.6609 <s> F-TWO 0.0000
-2.6609 <s> FIND 0.0000
-2.6609 <s> FIVE 0.0000
-2.6609 <s> FOR-K 0.0000
-2.6609 <s> FOR-K-V 0.0000
-2.6609 <s> FOR-LOOP 0.0000
-2.6609 <s> FOUR 0.0000
-2.6609 <s> FOXTROT 0.0000
-2.6609 <s> FROM 0.0000
-2.6609 <s> FUNCTION 0.0000
-2.6609 <s> GO-TO-FUNC 0.0000
-2.6609 <s> GO-TO-LINE 0.0000
-2.6609 <s> GOLF 0.0000
-2.6609 <s> GREATER-THAN 0.0000
-2.6609 <s> HASH 0.0000
-2.6609 <s> HASH-BANG 0.0000
-2.6609 <s> HOME 0.0000
-2.6609 <s> HOTEL 0.0000
-2.6609 <s> IF 0.0000
-2.6609 <s> IMPORT 0.0000
-2.6609 <s> IN-IT 0.0000
-2.6609 <s> INDENT 0.0000
-2.6609 <s> INDIA 0.0000
-2.6609 <s> JOIN-LINES 0.0000
-2.6609 <s> JULIE 0.0000
-2.6609 <s> JUMP 0.0000
-2.6609 <s> KILO 0.0000
-2.6609 <s> L-S 0.0000
-2.6609 <s> LEFT 0.0000
-2.6609 <s> LESS-THAN 0.0000
-2.6609 <s> LIMA 0.0000
-2.6609 <s> LIST 0.0000
-2.6609 <s> LOWERCASE 0.0000
-2.6609 <s> MAN 0.0000
-2.6609 <s> MAP 0.0000
-2.6609 <s> METHOD 0.0000
-2.6609 <s> MIKE 0.0000
-2.6609 <s> MILTI-SELECT 0.0000
-2.6609 <s> MINUS 0.0000
-2.6609 <s> MOVE-LINE-DOWN 0.0000
-2.6609 <s> MOVE-LINE-UP 0.0000
-2.6609 <s> MULTI-COMMENT 0.0000
-2.6609 <s> NEW 0.0000
-2.6609 <s> NEXT 0.0000
-2.6609 <s> NINE 0.0000
-2.6609 <s> NOVEMBER 0.0000
-2.6609 <s> ONE 0.0000
-2.6609 <s> OPEN 0.0000
-2.6609 <s> OSCAR 0.0000
-2.6609 <s> P-W-D 0.0000
-2.6609 <s> PAGE-DOWN 0.0000
-2.6609 <s> PAGE-UP 0.0000
-2.6609 <s> PAPA 0.0000
-2.6609 <s> PARENS 0.0000
-2.6609 <s> PASTE 0.0000
-2.6609 <s> PERCENT 0.0000
-2.6609 <s> PERIOD 0.0000
-2.6609 <s> PIPE 0.0000
-2.6609 <s> PLUS 0.0000
-2.6609 <s> POUND 0.0000
-2.6609 <s> PRINT 0.0000
-2.6609 <s> QUEBEC 0.0000
-2.6609 <s> QUESTION-MARK 0.0000
-2.6609 <s> QUICK-FIND 0.0000
-2.6609 <s> QUIT 0.0000
-2.6609 <s> QUOTES 0.0000
-2.6609 <s> RANGE 0.0000
-2.6609 <s> RE-INITIALIZE-VOICE 0.0000
-2.6609 <s> REDO 0.0000
-2.6609 <s> REMOVE 0.0000
-2.6609 <s> RETURN 0.0000
-2.6609 <s> RIGHT 0.0000
-2.6609 <s> ROMEO 0.0000
-2.6609 <s> ROOT-PASS 0.0000
-2.6609 <s> ROOT-USER 0.0000
-2.6609 <s> S-S-H 0.0000
-2.6609 <s> SAVE 0.0000
-2.6609 <s> SCOPE-ALPHA 0.0000
-2.6609 <s> SCOPE-BASE 0.0000
-2.6609 <s> SCOPE-BASH 0.0000
-2.6609 <s> SCOPE-DIGIT 0.0000
-2.6609 <s> SCOPE-META 0.0000
-2.6609 <s> SCOPE-PYTHON 0.0000
-2.6609 <s> SCOPE-SUBLIME 0.0000
-2.6609 <s> SCOPE-SYMBOLS 0.0000
-2.6609 <s> SCOPE-WEB 0.0000
-2.6609 <s> SELECT-ALL 0.0000
-2.6609 <s> SELECT-BLOCK 0.0000
-2.6609 <s> SELECT-DOWN 0.0000
-2.6609 <s> SELECT-LINE 0.0000
-2.6609 <s> SELECT-MILTI 0.0000
-2.6609 <s> SELECT-UP 0.0000
-2.6609 <s> SELECT-WORD 0.0000
-2.6609 <s> SEMI-COLON 0.0000
-2.6609 <s> SEVEN 0.0000
-2.6609 <s> SHIFT 0.0000
-2.6609 <s> SIERRA 0.0000
-2.6609 <s> SINGLE-QUOTES 0.0000
-2.6609 <s> SIX 0.0000
-2.6609 <s> SLAP 0.0000
-2.6609 <s> SLASH 0.0000
-2.6609 <s> SPACE 0.0000
-2.6609 <s> STAR 0.0000
-2.6609 <s> SUBLIME 0.0000
-2.6609 <s> SUPER-SECRET-REMOVE 0.0000
-2.6609 <s> SWITCH 0.0000
-2.6609 <s> TAB 0.0000
-2.6609 <s> TAG 0.0000
-2.6609 <s> TANGO 0.0000
-2.6609 <s> THREAD 0.0000
-2.6609 <s> THREE 0.0000
-2.6609 <s> TICK 0.0000
-2.6609 <s> TILDE 0.0000
-2.6609 <s> TOOLS 0.0000
-2.6609 <s> TOUCH 0.0000
-2.6609 <s> TWO 0.0000
-2.6609 <s> UN-INDENT 0.0000
-2.6609 <s> UNDERSCORE 0.0000
-2.6609 <s> UNDO 0.0000
-2.6609 <s> UNIFORM 0.0000
-2.6609 <s> UP 0.0000
-2.6609 <s> UPPERCASE 0.0000
-2.6609 <s> VICTOR 0.0000
-2.6609 <s> WHISKEY 0.0000
-2.6609 <s> X-RAY 0.0000
-2.6609 <s> YANKEE 0.0000
-2.6609 <s> ZEN 0.0000
-2.6609 <s> ZERO 0.0000
-0.3010 ALPHA </s> -0.3010
-0.3010 ALT </s> -0.3010
-0.3010 AMPERSAND </s> -0.3010
-0.3010 APPOSTROPY </s> -0.3010
-0.3010 ASTERISK </s> -0.3010
-0.3010 AT </s> -0.3010
-0.3010 BACK </s> -0.3010
-0.3010 BACKSLASH </s> -0.3010
-0.3010 BACKSPACE </s> -0.3010
-0.3010 BACKTICK </s> -0.3010
-0.3010 BANG </s> -0.3010
-0.3010 BRACES </s> -0.3010
-0.3010 BRACKETS </s> -0.3010
-0.3010 BRAVO </s> -0.3010
-0.3010 C-D </s> -0.3010
-0.3010 CAP-ALPHA </s> -0.3010
-0.3010 CAP-BRAVO </s> -0.3010
-0.3010 CAP-CHARLIE </s> -0.3010
-0.3010 CAP-DELTA </s> -0.3010
-0.3010 CAP-ECHO </s> -0.3010
-0.3010 CAP-FOXTROT </s> -0.3010
-0.3010 CAP-GOLF </s> -0.3010
-0.3010 CAP-HOTEL </s> -0.3010
-0.3010 CAP-INDIA </s> -0.3010
-0.3010 CAP-JULIE </s> -0.3010
-0.3010 CAP-KILO </s> -0.3010
-0.3010 CAP-LIMA </s> -0.3010
-0.3010 CAP-MIKE </s> -0.3010
-0.3010 CAP-NOVEMBER </s> -0.3010
-0.3010 CAP-OSCAR </s> -0.3010
-0.3010 CAP-PAPA </s> -0.3010
-0.3010 CAP-QUEBEC </s> -0.3010
-0.3010 CAP-ROMEO </s> -0.3010
-0.3010 CAP-SIERRA </s> -0.3010
-0.3010 CAP-TANGO </s> -0.3010
-0.3010 CAP-UNIFORM </s> -0.3010
-0.3010 CAP-VICTOR </s> -0.3010
-0.3010 CAP-WHISKEY </s> -0.3010
-0.3010 CAP-X-RAY </s> -0.3010
-0.3010 CAP-YANKEE </s> -0.3010
-0.3010 CAP-ZEN </s> -0.3010
-0.3010 CAPS </s> -0.3010
-0.3010 CAPS-LOCK </s> -0.3010
-0.3010 CARET </s> -0.3010
-0.3010 CHARLIE </s> -0.3010
-0.3010 CLASS </s> -0.3010
-0.3010 CLEAR </s> -0.3010
-0.3010 CLOSE </s> -0.3010
-0.3010 COLON </s> -0.3010
-0.3010 COMMA </s> -0.3010
-0.3010 COMMENT </s> -0.3010
-0.3010 COMPLETE </s> -0.3010
-0.3010 CONTROL </s> -0.3010
-0.3010 COPY </s> -0.3010
-0.3010 CURRENT </s> -0.3010
-0.3010 CUT </s> -0.3010
-0.3010 DASH </s> -0.3010
-0.3010 DEFAULT-PASS </s> -0.3010
-0.3010 DEFAULT-USER </s> -0.3010
-0.3010 DELETE </s> -0.3010
-0.3010 DELETE-BLOCK </s> -0.3010
-0.3010 DELETE-LINE </s> -0.3010
-0.3010 DELETE-TO-END </s> -0.3010
-0.3010 DELETE-TO-START </s> -0.3010
-0.3010 DELETE-WORD </s> -0.3010
-0.3010 DELTA </s> -0.3010
-0.3010 DOLLAR </s> -0.3010
-0.3010 DOT </s> -0.3010
-0.3010 DOT-BIZ </s> -0.3010
-0.3010 DOT-COM </s> -0.3010
-0.3010 DOT-G-O </s> -0.3010
-0.3010 DOT-H-T-M-L </s> -0.3010
-0.3010 DOT-JASON </s> -0.3010
-0.3010 DOT-NET </s> -0.3010
-0.3010 DOT-ORG </s> -0.3010
-0.3010 DOT-P-Y </s> -0.3010
-0.3010 DOT-S-H </s> -0.3010
-0.3010 DOT-T-X-T </s> -0.3010
-0.3010 DOWN </s> -0.3010
-0.3010 DUPLICATE-LINE </s> -0.3010
-0.3010 DUPLICATE-LINES </s> -0.3010
-0.3010 ECHO </s> -0.3010
-0.3010 EIGHT </s> -0.3010
-0.3010 ELSE </s> -0.3010
-0.3010 ELSE-IF </s> -0.3010
-0.3010 END </s> -0.3010
-0.3010 ENTER </s> -0.3010
-0.3010 EQUALS </s> -0.3010
-0.3010 ESCAPE </s> -0.3010
-0.3010 EXCLAMATION-POINT </s> -0.3010
-0.3010 F-EIGHT </s> -0.3010
-0.3010 F-ELEVEN </s> -0.3010
-0.3010 F-FIVE </s> -0.3010
-0.3010 F-FOUR </s> -0.3010
-0.3010 F-NINE </s> -0.3010
-0.3010 F-ONE </s> -0.3010
-0.3010 F-SEVEN </s> -0.3010
-0.3010 F-SIX </s> -0.3010
-0.3010 F-TEN </s> -0.3010
-0.3010 F-THREE </s> -0.3010
-0.3010 F-TWELVE </s> -0.3010
-0.3010 F-TWO </s> -0.3010
-0.3010 FIND </s> -0.3010
-0.3010 FIVE </s> -0.3010
-0.3010 FOR-K </s> -0.3010
-0.3010 FOR-K-V </s> -0.3010
-0.3010 FOR-LOOP </s> -0.3010
-0.3010 FOUR </s> -0.3010
-0.3010 FOXTROT </s> -0.3010
-0.3010 FROM </s> -0.3010
-0.3010 FUNCTION </s> -0.3010
-0.3010 GO-TO-FUNC </s> -0.3010
-0.3010 GO-TO-LINE </s> -0.3010
-0.3010 GOLF </s> -0.3010
-0.3010 GREATER-THAN </s> -0.3010
-0.3010 HASH </s> -0.3010
-0.3010 HASH-BANG </s> -0.3010
-0.3010 HOME </s> -0.3010
-0.3010 HOTEL </s> -0.3010
-0.3010 IF </s> -0.3010
-0.3010 IMPORT </s> -0.3010
-0.3010 IN-IT </s> -0.3010
-0.3010 INDENT </s> -0.3010
-0.3010 INDIA </s> -0.3010
-0.3010 JOIN-LINES </s> -0.3010
-0.3010 JULIE </s> -0.3010
-0.3010 JUMP </s> -0.3010
-0.3010 KILO </s> -0.3010
-0.3010 L-S </s> -0.3010
-0.3010 LEFT </s> -0.3010
-0.3010 LESS-THAN </s> -0.3010
-0.3010 LIMA </s> -0.3010
-0.3010 LIST </s> -0.3010
-0.3010 LOWERCASE </s> -0.3010
-0.3010 MAN </s> -0.3010
-0.3010 MAP </s> -0.3010
-0.3010 METHOD </s> -0.3010
-0.3010 MIKE </s> -0.3010
-0.3010 MILTI-SELECT </s> -0.3010
-0.3010 MINUS </s> -0.3010
-0.3010 MOVE-LINE-DOWN </s> -0.3010
-0.3010 MOVE-LINE-UP </s> -0.3010
-0.3010 MULTI-COMMENT </s> -0.3010
-0.3010 NEW </s> -0.3010
-0.3010 NEXT </s> -0.3010
-0.3010 NINE </s> -0.3010
-0.3010 NOVEMBER </s> -0.3010
-0.3010 ONE </s> -0.3010
-0.3010 OPEN </s> -0.3010
-0.3010 OSCAR </s> -0.3010
-0.3010 P-W-D </s> -0.3010
-0.3010 PAGE-DOWN </s> -0.3010
-0.3010 PAGE-UP </s> -0.3010
-0.3010 PAPA </s> -0.3010
-0.3010 PARENS </s> -0.3010
-0.3010 PASTE </s> -0.3010
-0.3010 PERCENT </s> -0.3010
-0.3010 PERIOD </s> -0.3010
-0.3010 PIPE </s> -0.3010
-0.3010 PLUS </s> -0.3010
-0.3010 POUND </s> -0.3010
-0.3010 PRINT </s> -0.3010
-0.3010 QUEBEC </s> -0.3010
-0.3010 QUESTION-MARK </s> -0.3010
-0.3010 QUICK-FIND </s> -0.3010
-0.3010 QUIT </s> -0.3010
-0.3010 QUOTES </s> -0.3010
-0.3010 RANGE </s> -0.3010
-0.3010 RE-INITIALIZE-VOICE </s> -0.3010
-0.3010 REDO </s> -0.3010
-0.3010 REMOVE </s> -0.3010
-0.3010 RETURN </s> -0.3010
-0.3010 RIGHT </s> -0.3010
-0.3010 ROMEO </s> -0.3010
-0.3010 ROOT-PASS </s> -0.3010
-0.3010 ROOT-USER </s> -0.3010
-0.3010 S-S-H </s> -0.3010
-0.3010 SAVE </s> -0.3010
-0.3010 SCOPE-ALPHA </s> -0.3010
-0.3010 SCOPE-BASE </s> -0.3010
-0.3010 SCOPE-BASH </s> -0.3010
-0.3010 SCOPE-DIGIT </s> -0.3010
-0.3010 SCOPE-META </s> -0.3010
-0.3010 SCOPE-PYTHON </s> -0.3010
-0.3010 SCOPE-SUBLIME </s> -0.3010
-0.3010 SCOPE-SYMBOLS </s> -0.3010
-0.3010 SCOPE-WEB </s> -0.3010
-0.3010 SELECT-ALL </s> -0.3010
-0.3010 SELECT-BLOCK </s> -0.3010
-0.3010 SELECT-DOWN </s> -0.3010
-0.3010 SELECT-LINE </s> -0.3010
-0.3010 SELECT-MILTI </s> -0.3010
-0.3010 SELECT-UP </s> -0.3010
-0.3010 SELECT-WORD </s> -0.3010
-0.3010 SEMI-COLON </s> -0.3010
-0.3010 SEVEN </s> -0.3010
-0.3010 SHIFT </s> -0.3010
-0.3010 SIERRA </s> -0.3010
-0.3010 SINGLE-QUOTES </s> -0.3010
-0.3010 SIX </s> -0.3010
-0.3010 SLAP </s> -0.3010
-0.3010 SLASH </s> -0.3010
-0.3010 SPACE </s> -0.3010
-0.3010 STAR </s> -0.3010
-0.3010 SUBLIME </s> -0.3010
-0.3010 SUPER-SECRET-REMOVE </s> -0.3010
-0.3010 SWITCH </s> -0.3010
-0.3010 TAB </s> -0.3010
-0.3010 TAG </s> -0.3010
-0.3010 TANGO </s> -0.3010
-0.3010 THREAD </s> -0.3010
-0.3010 THREE </s> -0.3010
-0.3010 TICK </s> -0.3010
-0.3010 TILDE </s> -0.3010
-0.3010 TOOLS </s> -0.3010
-0.3010 TOUCH </s> -0.3010
-0.3010 TWO </s> -0.3010
-0.3010 UN-INDENT </s> -0.3010
-0.3010 UNDERSCORE </s> -0.3010
-0.3010 UNDO </s> -0.3010
-0.3010 UNIFORM </s> -0.3010
-0.3010 UP </s> -0.3010
-0.3010 UPPERCASE </s> -0.3010
-0.3010 VICTOR </s> -0.3010
-0.3010 WHISKEY </s> -0.3010
-0.3010 X-RAY </s> -0.3010
-0.3010 YANKEE </s> -0.3010
-0.3010 ZEN </s> -0.3010
-0.3010 ZERO </s> -0.3010

\3-grams:
-0.3010 <s> ALPHA </s>
-0.3010 <s> ALT </s>
-0.3010 <s> AMPERSAND </s>
-0.3010 <s> APPOSTROPY </s>
-0.3010 <s> ASTERISK </s>
-0.3010 <s> AT </s>
-0.3010 <s> BACK </s>
-0.3010 <s> BACKSLASH </s>
-0.3010 <s> BACKSPACE </s>
-0.3010 <s> BACKTICK </s>
-0.3010 <s> BANG </s>
-0.3010 <s> BRACES </s>
-0.3010 <s> BRACKETS </s>
-0.3010 <s> BRAVO </s>
-0.3010 <s> C-D </s>
-0.3010 <s> CAP-ALPHA </s>
-0.3010 <s> CAP-BRAVO </s>
-0.3010 <s> CAP-CHARLIE </s>
-0.3010 <s> CAP-DELTA </s>
-0.3010 <s> CAP-ECHO </s>
-0.3010 <s> CAP-FOXTROT </s>
-0.3010 <s> CAP-GOLF </s>
-0.3010 <s> CAP-HOTEL </s>
-0.3010 <s> CAP-INDIA </s>
-0.3010 <s> CAP-JULIE </s>
-0.3010 <s> CAP-KILO </s>
-0.3010 <s> CAP-LIMA </s>
-0.3010 <s> CAP-MIKE </s>
-0.3010 <s> CAP-NOVEMBER </s>
-0.3010 <s> CAP-OSCAR </s>
-0.3010 <s> CAP-PAPA </s>
-0.3010 <s> CAP-QUEBEC </s>
-0.3010 <s> CAP-ROMEO </s>
-0.3010 <s> CAP-SIERRA </s>
-0.3010 <s> CAP-TANGO </s>
-0.3010 <s> CAP-UNIFORM </s>
-0.3010 <s> CAP-VICTOR </s>
-0.3010 <s> CAP-WHISKEY </s>
-0.3010 <s> CAP-X-RAY </s>
-0.3010 <s> CAP-YANKEE </s>
-0.3010 <s> CAP-ZEN </s>
-0.3010 <s> CAPS </s>
-0.3010 <s> CAPS-LOCK </s>
-0.3010 <s> CARET </s>
-0.3010 <s> CHARLIE </s>
-0.3010 <s> CLASS </s>
-0.3010 <s> CLEAR </s>
-0.3010 <s> CLOSE </s>
-0.3010 <s> COLON </s>
-0.3010 <s> COMMA </s>
-0.3010 <s> COMMENT </s>
-0.3010 <s> COMPLETE </s>
-0.3010 <s> CONTROL </s>
-0.3010 <s> COPY </s>
-0.3010 <s> CURRENT </s>
-0.3010 <s> CUT </s>
-0.3010 <s> DASH </s>
-0.3010 <s> DEFAULT-PASS </s>
-0.3010 <s> DEFAULT-USER </s>
-0.3010 <s> DELETE </s>
-0.3010 <s> DELETE-BLOCK </s>
-0.3010 <s> DELETE-LINE </s>
-0.3010 <s> DELETE-TO-END </s>
-0.3010 <s> DELETE-TO-START </s>
-0.3010 <s> DELETE-WORD </s>
-0.3010 <s> DELTA </s>
-0.3010 <s> DOLLAR </s>
-0.3010 <s> DOT </s>
-0.3010 <s> DOT-BIZ </s>
-0.3010 <s> DOT-COM </s>
-0.3010 <s> DOT-G-O </s>
-0.3010 <s> DOT-H-T-M-L </s>
-0.3010 <s> DOT-JASON </s>
-0.3010 <s> DOT-NET </s>
-0.3010 <s> DOT-ORG </s>
-0.3010 <s> DOT-P-Y </s>
-0.3010 <s> DOT-S-H </s>
-0.3010 <s> DOT-T-X-T </s>
-0.3010 <s> DOWN </s>
-0.3010 <s> DUPLICATE-LINE </s>
-0.3010 <s> DUPLICATE-LINES </s>
-0.3010 <s> ECHO </s>
-0.3010 <s> EIGHT </s>
-0.3010 <s> ELSE </s>
-0.3010 <s> ELSE-IF </s>
-0.3010 <s> END </s>
-0.3010 <s> ENTER </s>
-0.3010 <s> EQUALS </s>
-0.3010 <s> ESCAPE </s>
-0.3010 <s> EXCLAMATION-POINT </s>
-0.3010 <s> F-EIGHT </s>
-0.3010 <s> F-ELEVEN </s>
-0.3010 <s> F-FIVE </s>
-0.3010 <s> F-FOUR </s>
-0.3010 <s> F-NINE </s>
-0.3010 <s> F-ONE </s>
-0.3010 <s> F-SEVEN </s>
-0.3010 <s> F-SIX </s>
-0.3010 <s> F-TEN </s>
-0.3010 <s> F-THREE </s>
-0.3010 <s> F-TWELVE </s>
-0.3010 <s> F-TWO </s>
-0.3010 <s> FIND </s>
-0.3010 <s> FIVE </s>
-0.3010 <s> FOR-K </s>
-0.3010 <s> FOR-K-V </s>
-0.3010 <s> FOR-LOOP </s>
-0.3010 <s> FOUR </s>
-0.3010 <s> FOXTROT </s>
-0.3010 <s> FROM </s>
-0.3010 <s> FUNCTION </s>
-0.3010 <s> GO-TO-FUNC </s>
-0.3010 <s> GO-TO-LINE </s>
-0.3010 <s> GOLF </s>
-0.3010 <s> GREATER-THAN </s>
-0.3010 <s> HASH </s>
-0.3010 <s> HASH-BANG </s>
-0.3010 <s> HOME </s>
-0.3010 <s> HOTEL </s>
-0.3010 <s> IF </s>
-0.3010 <s> IMPORT </s>
-0.3010 <s> IN-IT </s>
-0.3010 <s> INDENT </s>
-0.3010 <s> INDIA </s>
-0.3010 <s> JOIN-LINES </s>
-0.3010 <s> JULIE </s>
-0.3010 <s> JUMP </s>
-0.3010 <s> KILO </s>
-0.3010 <s> L-S </s>
-0.3010 <s> LEFT </s>
-0.3010 <s> LESS-THAN </s>
-0.3010 <s> LIMA </s>
-0.3010 <s> LIST </s>
-0.3010 <s> LOWERCASE </s>
-0.3010 <s> MAN </s>
-0.3010 <s> MAP </s>
-0.3010 <s> METHOD </s>
-0.3010 <s> MIKE </s>
-0.3010 <s> MILTI-SELECT </s>
-0.3010 <s> MINUS </s>
-0.3010 <s> MOVE-LINE-DOWN </s>
-0.3010 <s> MOVE-LINE-UP </s>
-0.3010 <s> MULTI-COMMENT </s>
-0.3010 <s> NEW </s>
-0.3010 <s> NEXT </s>
-0.3010 <s> NINE </s>
-0.3010 <s> NOVEMBER </s>
-0.3010 <s> ONE </s>
-0.3010 <s> OPEN </s>
-0.3010 <s> OSCAR </s>
-0.3010 <s> P-W-D </s>
-0.3010 <s> PAGE-DOWN </s>
-0.3010 <s> PAGE-UP </s>
-0.3010 <s> PAPA </s>
-0.3010 <s> PARENS </s>
-0.3010 <s> PASTE </s>
-0.3010 <s> PERCENT </s>
-0.3010 <s> PERIOD </s>
-0.3010 <s> PIPE </s>
-0.3010 <s> PLUS </s>
-0.3010 <s> POUND </s>
-0.3010 <s> PRINT </s>
-0.3010 <s> QUEBEC </s>
-0.3010 <s> QUESTION-MARK </s>
-0.3010 <s> QUICK-FIND </s>
-0.3010 <s> QUIT </s>
-0.3010 <s> QUOTES </s>
-0.3010 <s> RANGE </s>
-0.3010 <s> RE-INITIALIZE-VOICE </s>
-0.3010 <s> REDO </s>
-0.3010 <s> REMOVE </s>
-0.3010 <s> RETURN </s>
-0.3010 <s> RIGHT </s>
-0.3010 <s> ROMEO </s>
-0.3010 <s> ROOT-PASS </s>
-0.3010 <s> ROOT-USER </s>
-0.3010 <s> S-S-H </s>
-0.3010 <s> SAVE </s>
-0.3010 <s> SCOPE-ALPHA </s>
-0.3010 <s> SCOPE-BASE </s>
-0.3010 <s> SCOPE-BASH </s>
-0.3010 <s> SCOPE-DIGIT </s>
-0.3010 <s> SCOPE-META </s>
-0.3010 <s> SCOPE-PYTHON </s>
-0.3010 <s> SCOPE-SUBLIME </s>
-0.3010 <s> SCOPE-SYMBOLS </s>
-0.3010 <s> SCOPE-WEB </s>
-0.3010 <s> SELECT-ALL </s>
-0.3010 <s> SELECT-BLOCK </s>
-0.3010 <s> SELECT-DOWN </s>
-0.3010 <s> SELECT-LINE </s>
-0.3010 <s> SELECT-MILTI </s>
-0.3010 <s> SELECT-UP </s>
-0.3010 <s> SELECT-WORD </s>
-0.3010 <s> SEMI-COLON </s>
-0.3010 <s> SEVEN </s>
-0.3010 <s> SHIFT </s>
-0.3010 <s> SIERRA </s>
-0.3010 <s> SINGLE-QUOTES </s>
-0.3010 <s> SIX </s>
-0.3010 <s> SLAP </s>
-0.3010 <s> SLASH </s>
-0.3010 <s> SPACE </s>
-0.3010 <s> STAR </s>
-0.3010 <s> SUBLIME </s>
-0.3010 <s> SUPER-SECRET-REMOVE </s>
-0.3010 <s> SWITCH </s>
-0.3010 <s> TAB </s>
-0.3010 <s> TAG </s>
-0.3010 <s> TANGO </s>
-0.3010 <s> THREAD </s>
-0.3010 <s> THREE </s>
-0.3010 <s> TICK </s>
-0.3010 <s> TILDE </s>
-0.3010 <s> TOOLS </s>
-0.3010 <s> TOUCH </s>
-0.3010 <s> TWO </s>
-0.3010 <s> UN-INDENT </s>
-0.3010 <s> UNDERSCORE </s>
-0.3010 <s> UNDO </s>
-0.3010 <s> UNIFORM </s>
-0.3010 <s> UP </s>
-0.3010 <s> UPPERCASE </s>
-0.3010 <s> VICTOR </s>
-0.3010 <s> WHISKEY </s>
-0.3010 <s> X-RAY </s>
-0.3010 <s> YANKEE </s>
-0.3010 <s> ZEN </s>
-0.3010 <s> ZERO </s>

\end\
